100 64
61 -0.25013372 -0.11352991 -0.051927548 -0.071733184 0.2894397 -0.12696311 -0.45297435 0.36936057 -0.7441599 0.45407793 -0.33136937 -0.2950544 0.32972002 -0.10394478 0.016940737 -0.13742742 0.402431 0.12588878 -0.14188892 -0.54683363 0.49396017 -0.15266973 -0.03573361 -0.26847494 -0.08710819 -0.71041065 0.44116184 0.048431266 0.3859129 -0.24083856 -0.036939085 0.011576404 -0.19510597 0.22309941 0.06533602 -0.26389843 0.056534 0.648473 0.2577357 -0.1416744 0.26435822 -0.19186957 -0.03494861 -0.07720429 -0.1291227 -0.00036461808 0.21026765 0.09619203 0.07930435 -0.4314897 -0.47166812 -0.08897063 -0.11388451 0.32063884 -0.67280185 -0.004506911 -0.42975798 0.1715901 0.3439231 0.5038027 0.18901406 -0.09424225 0.36780667 0.2213528
76 -0.4833275 0.09011528 0.16901298 -0.015690543 0.14508331 -0.2848782 0.021184735 0.2751712 -0.062287126 0.4184119 0.22114418 -0.031600237 0.06442778 -0.11743237 0.28235918 0.1823314 -0.02217182 0.5120779 -0.25372264 0.24805255 -0.0335798 0.08312572 0.17242233 0.4507479 -0.42558816 -0.35382244 0.2401633 -0.2758374 0.2961351 0.092284925 -0.17596103 0.3858704 -0.11615817 -0.39770952 0.44375053 0.06680474 0.18538155 0.33348635 0.58589274 0.3537293 0.056418944 0.38048148 0.19876988 -0.08789686 0.08580906 -0.25268698 -0.14972535 -0.12513226 -0.55032927 0.27013192 0.13041067 0.31852904 0.14306639 0.051483613 0.1684602 -0.006475783 -0.50774497 0.20982113 0.20801954 0.38584065 -0.19234818 0.13110837 0.21115243 -0.33759537
64 0.027139775 -0.5402267 -0.097321786 -0.14105327 -0.09969117 0.42880762 0.105510436 0.06395462 -0.104669854 0.19934964 -0.27513653 -0.13227741 0.065765634 -0.29158714 -0.08564757 0.21258199 0.5148919 -0.0013578091 -0.03467124 -0.16351625 -0.2021015 -0.2968628 -0.35613224 0.43454605 0.005838691 -0.088055134 0.58280665 -0.34262735 0.15289448 -0.66184473 1.0569023 -0.5155719 0.13731962 0.2858528 0.37413433 -0.54716265 -0.05615866 0.658503 0.29310158 -0.66770816 0.19212086 -0.04886907 0.06688714 -0.1045905 -0.48258102 0.49375045 -0.48594773 -0.35431698 -0.43711087 0.18820167 0.3431925 0.3600536 -0.3172985 0.24269116 0.33033642 0.027131092 0.3507671 0.020613838 0.736029 0.65755767 -0.12054198 -0.22838578 0.6720255 0.13410537
19 0.102582194 0.31746373 0.0034850426 -0.21407269 -0.42118043 -0.25013995 0.3106862 -0.12751159 0.052535046 -0.04442297 0.2362266 -0.46695706 -0.5936012 0.3973303 -0.49915662 -0.27716315 0.3011564 0.035235424 0.38743338 -0.48970374 -0.3000939 0.31470305 0.23581542 -0.25557122 -0.20383215 -0.44621885 0.18322559 -0.14779623 0.26673055 0.12606905 0.2350623 -0.08284326 0.16303119 -0.1967133 0.48658046 -0.2948549 -0.48457006 0.14717752 -0.08365901 0.07329384 -0.15673916 0.43169272 0.6617705 0.027669637 -0.29881522 -0.15673824 0.118361816 -0.52001566 0.06740956 -0.4007098 0.22677508 0.41968724 -0.16850837 0.59877264 0.07192921 0.23383336 -0.28930047 -0.273166 0.4786097 0.25105628 -0.3163151 -0.12271387 -0.019195005 -0.25459498
15 -0.07841254 -0.026225783 -0.05991209 0.5139422 -0.25777814 -0.6928611 0.07522789 -0.073121354 -0.0027419978 0.6555388 -0.06585622 -0.5209941 0.28476182 -0.18523267 0.41884226 0.13313001 0.12461922 0.03878212 0.41214523 0.060458265 -0.3511733 0.44079477 0.049654696 -0.0060212733 -0.048762895 -0.23397397 0.229013 0.24013059 0.27458617 0.09298682 -0.66490316 0.10307893 -0.25970426 -0.45193318 -0.4915144 -0.3146479 -0.18513127 -0.05422321 0.3845437 -0.13551565 -0.2327914 -0.10080227 0.4375327 0.7367169 0.05265599 0.18120518 0.30971962 -0.057074014 0.6735058 -0.103610724 0.20134981 -0.17732944 -0.33149645 -0.012716655 -0.026291033 -0.10962426 0.071322076 -0.5033599 0.2845547 -0.33236194 0.6670247 -0.081681 0.20640458 -0.3557788
20 0.07370777 0.06739425 -0.2251488 -0.3863595 0.115963794 -0.0053232173 0.48370433 -0.23380445 0.345214 -0.28649685 0.019360846 -0.38181907 -0.79729456 -0.17856571 0.3600564 0.5877236 0.23147304 0.1504598 0.19110656 -0.12558143 -0.3964157 0.09679238 0.21483254 0.18679054 -0.1146531 -0.28675 0.37853283 -0.7545821 -0.15643783 0.042325426 -0.2298004 -0.31345835 0.29606366 -0.23610082 -0.17050129 0.42361158 0.082450114 -0.5447125 -0.097300224 0.23778965 -0.24401188 0.19789547 0.19944173 0.5705604 0.36532867 -0.27489057 -0.11430045 -0.01623016 -0.42535034 0.5317538 0.2826368 0.027515689 0.30095 -0.3288891 0.12338541 0.2162147 -0.11222675 0.13729374 -0.46561456 -0.25304356 -0.48418537 0.90401435 0.24377804 0.5602742
90 -0.049730755 -0.4016806 0.116959505 0.007098327 -0.42655072 -0.5103045 -0.02170424 0.45076266 -0.04598884 0.44562402 0.06026744 0.26863453 -0.39423314 0.009602288 0.23412436 0.2156054 0.04200681 -0.09693357 -0.11475258 -0.046696056 0.024892071 0.39268446 -0.49052352 0.10217346 0.12537251 -0.0791317 0.17288381 0.048796535 0.2614621 0.4349952 0.58314276 0.39682013 -0.033057638 0.18589772 -0.13158919 0.48850343 0.20401314 0.12727521 0.61135715 0.084172554 0.017078253 0.15168929 0.14466605 -0.07241755 -0.29625985 -0.06180906 0.076457605 0.43215188 0.38256955 -0.14075775 0.31666166 0.36851546 0.31306487 -0.44432756 -0.112488106 -0.26393807 -0.1738942 -0.1068255 0.15047689 -0.038159356 0.26805174 -0.04379759 0.30516377 0.6365732
13 0.3201807 -0.24631657 0.42204472 -0.12050563 -0.56158215 0.1328668 0.24463052 -0.438951 0.13704273 0.7146842 -0.08389552 -0.23899764 -0.4937186 0.117024325 0.37838948 0.44714126 0.6545859 0.539704 -0.09334559 0.11377163 -0.4398935 0.30063975 0.12415885 -0.26831555 0.0066992682 -0.0116880145 -0.36660218 0.034038316 0.09522985 0.10629029 -0.00182016 -0.364921 0.021032235 -0.32429263 -0.18691123 -0.28871477 0.03746755 -0.16312522 0.9178405 -0.4508605 -0.17976592 -0.27815405 0.42787418 0.4383238 0.6730382 0.26125348 0.27632967 0.67206496 0.31471005 0.057699554 0.36478522 0.3718036 -0.70591503 -0.06388431 -0.20932429 -0.0344683 0.1372162 0.058166612 0.42842448 -0.6341185 0.31643075 0.1193954 0.6319733 0.078908905
22 -0.089785576 0.07035321 -0.003498963 0.08647518 -0.13568333 -0.7901458 0.080206186 0.06800095 -0.10171005 0.22039796 0.3443268 -0.4757128 -0.034174025 -0.24362521 0.36071175 0.4668689 -0.2514263 -0.0026798889 0.5572505 -0.38849485 -6.245471e-05 0.38606688 -0.25689283 0.4798988 -0.3050226 -0.18956369 0.4173278 0.1649361 -0.19751728 -0.39486858 -0.3457071 0.44629773 -0.08179977 -0.029860528 0.1398567 0.043439146 0.0023769832 0.25537047 0.20562546 -0.21558551 0.011029293 0.668228 0.27757952 0.2880726 -0.19920947 -0.19437645 -0.3110601 -0.6849692 -0.3177496 0.17872375 0.107088305 -0.28693262 0.23983017 0.31404588 0.11601635 0.42900148 0.016453061 -0.51044595 -0.092824794 0.45662865 -0.17659235 0.19431171 -0.15317047 -0.20805278
40 0.3772721 -0.04053838 -0.34776616 0.2680556 -0.26590964 -0.22266154 0.31901622 0.44927344 0.098018244 -0.31309828 -0.18363945 -0.5882168 -0.76347864 -0.32346475 -0.2684373 0.39493954 0.7549134 -0.2990435 0.8558087 -0.1569326 -0.62139934 -0.2069019 0.040598404 0.11631998 -0.17894453 -0.27385283 0.5327547 0.11372329 -0.044881336 -0.2779717 -0.5456564 -0.5451434 -0.22705734 0.106485225 -0.16060741 -0.39250675 -0.36816522 0.2805055 -0.86758053 0.08786237 -0.47122175 -0.11798478 0.30276126 -0.3665548 0.91374916 0.350926 0.30228126 -0.9913618 0.39898846 -0.1924676 0.46004638 -0.35115442 -0.18808217 -0.23968184 0.03630583 0.7040241 -0.2509188 -0.2922731 -0.078764945 0.5200265 -0.29542372 -0.515164 -0.06304405 -0.14505164
33 -0.17365058 -0.08325689 -0.32944557 -0.14006406 0.33336163 0.31912228 -0.24744746 0.13482133 0.6873048 0.79158205 0.26768887 0.07450326 -0.58177155 0.2795217 0.21441504 0.45422688 0.4518646 -0.05610647 -0.28019652 0.56859607 0.09576132 -0.018146906 0.64714456 -0.23145571 -0.13386185 -0.30216795 -0.009297257 0.20663136 0.28514373 0.71279657 0.33812273 0.03209086 -0.17240082 0.044338614 0.1975532 -0.016787266 -0.15283974 0.31574383 0.27247053 0.09595041 0.12158166 0.146292 -0.22538987 0.12774526 -0.39652485 -0.4606949 0.102775656 0.55958027 -0.010631822 -0.06852508 -0.4281661 0.34136757 -0.15932019 -0.12197007 0.38286534 -0.06964508 0.12898904 0.4457803 0.4218367 -0.015849154 0.4097209 -0.48245493 0.12320255 0.25661007
86 -0.20761035 -0.1149975 0.61741716 -0.11263917 0.01125765 -0.42374203 -0.16992176 -0.20311491 0.0539366 0.1927024 0.41051343 0.1787002 0.134381 -0.54054904 0.70435107 0.2396728 0.25635776 0.09137597 0.13344064 0.704161 0.47335345 0.26167977 -0.16769269 -0.116172716 0.091790974 0.092312306 0.53083926 -0.0529892 -0.0085688885 -0.49801776 0.3371477 -0.1541222 0.097635694 0.085614026 0.08558625 0.22025627 0.20801358 -0.2084809 0.5671399 -0.18281983 0.29915196 0.3145276 -0.1669293 0.7921474 -0.054456566 -0.41690502 -0.1998442 0.15526617 -0.14208043 -0.2557996 0.15202892 -0.016801095 0.30384877 0.25702128 -0.23296934 -0.4265336 0.19718754 0.02026711 0.4147135 0.034310848 -0.3718814 0.18830624 0.12581241 0.13711815
26 -0.30286965 -0.034944944 -0.06911005 0.0903884 0.2675737 0.3369828 -0.035504602 -0.11862754 0.5427993 0.05705279 -0.062393587 -0.055382308 -0.15456678 -0.49120817 0.31699732 0.1725381 0.34639585 0.29319376 0.41375095 0.5643908 -0.020687088 0.41571245 -0.43277457 -0.024298513 0.08321768 -0.026629152 0.31870827 -0.3043578 0.6731849 1.010129 -0.0066342847 0.0856049 0.068253264 0.3213938 0.23115864 0.2978851 -0.30736747 0.073889606 -0.061369523 0.17674261 -0.23499332 -0.35786176 -0.05004561 0.336481 -0.59483683 -0.67180574 -0.12301736 0.14497294 -0.58949363 -0.27454644 0.05935127 -0.16784655 -0.43244848 -0.40409383 0.23142962 -0.76805484 -0.19718663 -0.20953545 0.2703023 0.019026978 0.12593307 0.15551864 0.25467426 0.49174285
6 -0.049481627 0.14234464 -0.2495467 0.279323 -0.7720447 0.12211825 -0.0058030114 -0.022009399 -0.058763053 -0.039349593 -0.70134753 0.09410123 -0.99731416 -0.14055376 0.02948405 0.4216466 0.53169584 0.018236523 0.28015426 -0.1591295 -1.1310433 -0.15221903 0.024680777 0.25883687 0.17966366 -0.7228713 0.5124622 0.02498007 0.22408497 -0.0056218426 0.25821704 -0.2906201 0.33097512 0.1895218 0.13504098 -0.34806523 0.32359168 0.2783693 -0.018614406 -0.21628124 0.16896206 -0.14695981 0.6206863 0.094690755 0.53004557 0.27261284 -0.016844958 -0.5844152 0.030368682 0.17366788 0.07970304 0.46363696 0.1441003 -0.40062195 0.5692791 -0.10527927 -0.38523903 0.23937029 -0.2548629 -0.3078341 0.012093332 0.123183854 0.66523224 0.42017978
52 0.42771602 -0.62510914 -0.14562957 -0.48242506 0.49907967 0.018158568 -0.17894772 0.23006344 -0.3215788 0.3756376 -0.09062877 -0.4977306 0.4601899 -0.25857794 0.3667456 -0.44441333 0.33914545 0.381189 0.27231404 -0.1626678 0.5253894 0.5878482 0.49185368 0.40937856 -0.27318764 -0.052746043 0.46688738 -0.5402701 0.5418965 0.32629174 -0.27956238 -0.25971827 0.0021449216 -0.0020401508 0.4645969 0.14764659 0.3258347 0.7328717 -0.4268757 -0.26295313 0.29473332 0.15042824 0.20062718 -0.10978238 0.095008194 -0.2127642 -0.13103239 0.21414529 -0.7143324 0.16653547 -0.054972187 -0.09362319 -0.17166282 0.07134934 -0.33280745 0.47592923 -0.23111463 -0.34091327 0.27231392 0.721972 0.19458054 -0.30295962 0.20299591 -0.009494299
17 0.14171627 -0.46512216 -0.92815334 -0.9045918 0.017330827 -0.18192723 0.2500329 -0.59353745 0.30553213 0.005710375 0.11999411 -0.548531 0.5479911 0.06378303 0.24822108 -0.42707336 0.13706885 0.2576526 0.0871897 -0.6047369 -0.2690771 0.63231725 0.47730416 -0.0055434955 -0.16184382 -0.73721695 0.23354363 -0.26121333 0.033208378 -0.1404398 -0.15315525 -0.2603685 0.39392465 -0.14740753 0.43786412 0.3721266 -0.19500086 0.2024796 0.08304375 0.02983522 0.20416442 -0.043181036 0.26748797 0.44097587 -0.357528 0.2543927 -0.20677379 0.65236384 -0.35735735 0.015425884 0.11459248 0.08269503 0.18019632 0.026851911 -0.28156602 0.69038147 -0.38532847 0.10619129 0.06999826 0.39801672 0.5303521 0.2607522 0.005197715 -0.30655745
5 -0.770196 0.44334313 0.18475044 -0.40222567 0.06566382 -0.33051416 -0.5465952 -0.1614656 0.53013283 0.37247118 0.24263014 -0.14022075 -0.6317909 -0.37947997 0.10158071 0.6293874 -0.3291415 0.8236985 -0.022002319 0.6086824 0.30685076 -0.47169486 -0.09689155 -0.30320418 0.21264216 0.026229827 0.45322382 0.37489584 0.24345016 -0.13425733 -0.4967899 0.15621907 0.5105057 -0.101396844 0.22160357 0.6157011 -0.16661043 -0.6701579 0.69259477 0.39943177 0.10685039 0.37920833 0.2781307 -0.082493894 0.417267 -0.5531071 -0.2588635 0.25757006 0.06688098 0.29171723 -0.30034935 -0.13271892 -0.17991647 -0.08775016 0.017689392 -0.27671555 -0.093126915 0.2088114 0.29291946 -0.079220526 -0.30377805 0.48631507 -0.29206645 0.2625274
39 -0.41907847 -0.15400837 -0.47853088 0.13753514 0.5293825 -0.57620215 -0.28288877 0.8066094 -0.7437815 0.24043506 -0.17360309 -0.46948352 0.35679436 0.14930536 0.10460958 0.3820601 -0.07175942 0.4009129 -0.26601997 -0.30108994 0.5042263 -0.15062022 -0.11785955 0.1401023 -0.19054702 -0.06253458 0.64101225 -0.091333665 0.13093263 0.14781001 -0.3063799 0.3224574 -0.28035247 0.31261635 -0.26001635 0.53710866 -0.14068192 -0.218831 0.4959155 -0.18311056 -0.23009725 0.639774 0.094954416 0.072650194 0.2203869 0.2120029 -0.14900927 -0.20690465 -0.07873112 0.05871707 -0.22408152 0.1588583 0.21700968 -0.49201402 -0.025909841 0.26301423 -0.37007713 0.28323 -0.11758546 0.48581338 0.4077301 0.073667966 -0.24965331 0.18261223
21 -0.22966316 -0.05154264 -0.34936774 0.19732976 0.3895358 -0.27541074 -0.07211658 0.12744929 0.104977526 0.3205558 0.2463569 -0.25613797 0.37246162 -0.2504636 -0.01125836 -0.36473137 0.25006318 -0.112676196 0.038793202 -0.14206018 0.08786744 0.007074695 0.6096632 -0.42611682 0.24152528 -0.15553373 0.27215156 -0.54722655 0.8052394 -0.24794313 -0.27248064 0.030748708 -0.27097753 -0.1398942 0.46974736 0.27164465 -0.35484374 0.2857244 -0.1987191 -0.2094674 -0.015835352 0.17656083 -0.0031075669 -0.030121619 -0.11050702 -0.44685823 -0.033135816 0.013933808 -0.56716436 -0.18828084 -0.25430727 -0.49935827 -0.2008753 0.07196082 0.14337371 0.35294074 -0.15417136 0.50247914 0.27204055 0.5494528 0.048164964 -0.07458194 -0.28076854 0.24427205
18 0.3009542 -0.29076228 0.26683256 -0.01942713 -0.08675127 0.053206462 -0.009272899 0.25135374 -0.35316676 0.2069173 -0.12543432 -0.54704213 -0.41143894 -0.5097399 -0.65211964 -0.049736023 0.22171824 -0.5687189 0.5547638 0.85464823 0.5281938 -0.08376704 -0.61813724 -0.14895608 0.16907422 0.3537948 0.42096406 -0.07282556 0.17015849 0.33547133 0.2219813 -0.17527701 -0.14687155 -0.012888727 -0.32033485 -0.4871838 0.11626217 0.1581693 -0.25371253 0.031807914 0.10416296 0.02727701 0.25469398 0.30114087 0.73193914 0.04986136 -0.56828934 -0.18012437 0.15970081 -0.39828223 0.36038888 0.41301844 0.3669379 -0.32578036 -0.10529826 0.44375744 -0.012752246 -0.5803765 0.062341426 -0.07304935 -0.24020223 -0.46355924 0.32088378 -0.10029619
62 0.34401277 0.5072503 0.33074415 -0.21153487 -0.42305756 0.33633265 0.04463847 -0.100452565 -0.049889233 0.5030277 0.6964956 -0.5377685 -0.197672 -0.24618718 -0.28093264 -0.46848178 0.251782 -0.3232813 -0.2491994 -0.16912042 0.26656386 0.20894238 -0.3208423 -0.57961833 0.54752177 0.06220443 -0.35760045 -0.2809783 0.94806784 0.13055171 -0.061639376 0.08579618 -0.096911676 0.036721658 0.7369928 -0.04363469 0.31724578 0.4754164 -0.010490184 0.56801736 -0.036797017 -0.3823808 0.21523887 -0.063659504 -0.2639151 -0.70172495 0.2108471 0.09577943 -0.14714916 -0.59231365 0.42765555 0.07335789 0.45130038 0.42359218 -0.13473229 0.066089146 -0.38238052 0.22786124 -0.24737796 0.4909896 -0.37938064 0.41792855 0.28252527 0.4451558
48 0.10759029 -0.5844232 0.7147099 0.09315564 -0.33151916 -0.03712858 -0.016920695 0.2521722 0.07652362 -0.28864145 -0.12191658 -0.29175463 -0.14017259 -0.052507084 0.22509825 0.61546093 0.2722363 0.16281325 0.14266187 -0.5503503 0.06779172 -0.2577807 0.15291874 0.11520652 -0.28933737 -0.28705478 0.1469325 -0.07652804 0.165431 -0.42472246 -0.20711699 -0.5333029 -0.1753822 0.07723145 -0.07434203 0.32854453 -0.36248314 -0.29571953 -0.26405227 -0.059316106 -0.34384492 -0.2564576 0.42504847 0.055860814 0.1652398 0.6132753 0.6838264 -0.26974222 0.539245 -0.021032222 0.0032273307 -0.06121504 -0.2674127 0.19449228 -0.20270266 0.13657996 -0.15320532 -0.3406308 0.14723866 0.20181702 -0.31975245 0.1797515 0.8530676 0.13142015
47 -0.18010715 0.1283655 0.7997037 0.35092396 -0.4124051 -0.4536351 0.31573364 -0.5956311 0.3494063 -0.511298 -0.044336937 -0.5433642 -0.24033137 -0.0674831 0.45934594 -0.12427384 0.7166825 0.026272697 0.23597191 0.505108 -0.34638652 -0.11256081 0.39622965 0.22271311 -0.18481112 -0.029389579 0.38080633 -0.020791322 0.034890834 0.18529344 0.2551319 0.06975273 0.51491934 -0.103090025 0.13246098 0.58480215 -0.64197433 -0.39871833 -0.45043015 0.80724424 -0.12973489 0.057022743 0.23693758 0.29248586 0.90793276 0.50000477 0.27608246 -0.64339 0.070615195 0.021382065 -0.17596164 0.5032388 0.15054978 -0.30521327 0.18101394 -0.16705109 -0.77270246 0.55921113 0.44253412 0.6312235 -0.3026249 0.20250446 -0.36930457 0.5109742
74 0.030338421 0.08676642 0.043815378 0.10471364 -0.40414277 0.04496103 -0.18074283 0.037746422 -0.21452866 -0.37283504 0.17989548 -0.36487857 -0.20972174 0.3230974 -0.37809396 0.62960565 -0.19388644 0.22727105 -0.18749264 0.45977417 -0.30573297 -0.78818035 -0.44176784 -0.20219728 -0.2924547 -0.017898493 0.75130534 0.29438934 -0.3897653 -0.4988059 0.26179332 0.3450933 0.31496403 0.25261354 0.2769569 -0.08839901 0.06089234 0.12698123 -0.0115282005 0.2697863 -0.099775426 0.0063318196 0.3883524 0.40584975 0.48608342 0.8873221 -0.33366042 -0.53868324 0.25227356 -0.2514546 0.17095166 1.0363692 0.14044404 -0.12642397 0.22175828 0.5778869 -0.47182533 -0.029899936 0.525491 0.8978172 0.16194105 -0.5932475 0.24123001 -0.75000054
11 0.15633708 -0.47006103 -0.010853008 -0.7075785 0.31960446 -0.6272623 -0.11338509 0.18722095 -0.4488759 0.6624861 -0.3448186 -0.37148696 0.6398457 -0.05380651 -0.03933218 0.4678208 -0.13986212 -0.52483857 0.32032284 -0.3155842 -0.3937243 0.49384865 -0.38579875 0.4161038 -0.34967613 -0.42014194 0.19830383 0.11467637 0.6351316 -0.25368428 0.25175312 -0.13507254 0.16540138 0.10186638 0.13393833 0.30114782 0.5864949 -0.013446907 0.39076507 -0.28700462 -0.20126007 -0.06650484 0.3936873 0.85566914 -0.25001374 -0.37747386 0.11287377 -0.116848424 -0.4072741 0.60370934 -0.07121774 -0.4124885 0.28797305 0.14961046 -0.1700654 0.53285533 0.23715653 -0.23625936 -0.3309749 -0.46214122 0.4042048 0.447473 -0.10297801 0.5361461
10 0.38980797 0.2501347 -0.014023742 -0.22912383 0.11672851 -0.013651325 -0.038982686 -0.47511175 0.51933396 0.43307662 0.09595685 -0.64519376 -0.43884894 -0.41074368 0.7965127 0.015669446 0.296212 0.08092733 0.12277867 -0.027053103 -0.19056465 -0.22284332 0.29865512 -0.545127 0.04502677 -0.26615265 -0.07123222 -0.028981246 0.38185358 0.4751873 -0.37038857 0.082920074 0.57139295 0.18595444 0.09166356 0.29018396 -0.46326542 0.46305782 0.35380533 0.25670847 -0.21995334 0.4248973 0.2390723 -0.078792274 -0.6301343 -0.2329163 0.23109934 -0.09909835 0.07555731 0.072275914 -0.045716792 -0.043860745 0.16842775 -0.101934604 -0.1890069 -0.42655835 0.011015602 -0.1846756 0.2568621 -0.03838477 -0.29027098 0.2513369 0.060128804 -0.039404117
65 0.18337384 -0.09414944 0.023820952 -0.49713784 -0.057126928 -0.4048848 -0.45903608 0.2752648 0.038980033 0.3318967 0.69812596 -0.67157835 -0.2561807 -0.15313712 0.37361917 0.01869862 -0.121047355 -0.4223678 0.1136899 0.37069395 0.45513102 -0.35634878 0.017036043 -0.29332814 -0.4797572 -0.3368352 0.0217802 -0.11860479 0.09243629 0.1604034 0.15062694 0.1309546 0.12340916 0.033213675 0.029714867 0.10289531 -0.110195644 0.37186247 0.05037836 0.12799533 -0.17595269 0.5770395 0.185753 0.041641008 -0.77593035 -0.27450415 0.22537144 -0.5596319 0.24307317 0.07352318 0.1803722 0.2009932 0.60620457 0.44407076 -0.013319654 0.4322921 -0.10183088 -0.6155594 0.0837956 0.24832636 -0.018211361 -0.33034968 0.0177881 -0.7196252
43 0.26224178 0.08240122 0.1511947 0.04358419 -0.09802512 0.1748363 0.2956205 0.6460298 -0.7253166 1.1391017 -0.11296415 0.100100525 -0.12181185 -0.117954075 -0.9614726 -0.21932076 0.13957672 -0.06515059 0.3185804 0.67492706 0.38356373 0.13476048 0.59052205 -0.02243942 -0.59991026 0.08930269 0.5440663 -0.44418284 0.22389793 0.26097605 0.22606067 -0.27932924 0.030385038 -0.18034755 0.430277 -0.5149054 -0.05973795 0.44109467 0.26565367 -0.15755445 0.5740725 0.43695578 0.083054505 0.18279262 0.35795754 -0.16709888 -0.3791735 0.07016383 -0.30121368 -0.6592992 -0.25566512 0.3724508 0.06655445 -0.01281395 0.07025128 0.34541684 0.060515333 -0.3390122 0.35277832 -0.35044357 0.52897215 -0.49861246 0.5324496 -0.29490066
8 0.09437216 -0.39017215 0.21480092 -0.11611211 0.32717457 0.14893226 0.4286611 0.19068432 -0.15614197 0.03451388 -0.44468212 0.18008834 0.08771746 0.5169117 -0.25357938 0.61128336 0.5915584 -0.4505624 0.5974738 0.2869449 0.48055235 0.3300157 0.50558746 0.39794606 -0.37348318 0.014542473 0.06139899 -0.7053237 0.2513594 -0.32178622 -0.2927898 -1.0279853 -0.4272494 -0.56309134 0.06839242 -0.07126345 -0.2562498 0.013286623 0.09865985 0.33976886 0.40692967 0.47123024 0.1634725 0.48637885 0.5397693 0.29703078 -0.20242175 0.43119463 -0.43321463 -0.16943981 0.012480663 0.24250527 -0.14004865 -0.47669896 -0.4903238 0.7198224 -0.14988227 0.3383789 -0.4075161 -0.35307363 -0.5231349 0.08779789 0.048239756 -0.4926312
78 -0.22283535 0.07092854 0.14273585 0.30827716 -0.13039862 -0.076847106 -0.17317834 0.21370685 0.2156817 -0.49980325 0.5936806 -0.3177791 -0.46556228 0.2822995 -0.10946729 -0.02861301 0.3203421 -0.31469727 0.75412893 -0.4790243 0.28829524 0.13851723 0.65997225 -0.2179887 0.4659809 -0.58429146 -0.13591814 0.21818095 0.07891778 0.2681177 -0.09452283 -0.11773602 0.1878852 -0.124405175 0.16338685 0.32349205 -0.39829788 -0.4212209 -0.5359041 0.14925562 0.3274538 0.74132127 0.4527673 0.08948559 0.2181035 -0.07117488 0.20992367 -0.04535109 0.21398826 -0.22624446 -0.43788373 0.19468208 0.42957827 -0.02506724 0.38536146 0.48132217 -0.058943752 0.102613345 0.010406073 -0.16297488 -0.42140645 0.07874996 0.21928746 -0.03383591
34 0.06398389 -0.32427707 -0.18608971 -0.4722177 0.24661566 -0.47163203 0.5469228 0.42141774 -0.23356445 -0.016902212 -0.48016363 0.08301167 -0.18695225 0.3288761 0.47497812 0.621617 0.35254318 0.059622232 0.51919615 -0.7699991 0.15112793 -0.06562463 -0.21398407 0.5390998 -0.30652836 -0.28498477 0.8523068 0.043642864 -0.0912014 -0.2619267 0.42235795 0.36335173 -0.32736233 0.055451233 -0.44951215 0.5098576 0.41759 0.3485836 0.123885304 0.65003693 -0.021845518 0.0010341217 -0.068479255 0.56819725 0.5276152 0.2022558 -0.5465077 0.004854206 -0.4028987 0.46648097 -0.012080738 0.28640476 0.55586255 -0.3613362 -0.75597167 0.1744356 -0.79078656 0.13100551 -0.020587074 0.673881 -0.444021 0.13038105 0.37574407 0.13662466
95 -0.7107291 -0.19151041 0.68442416 -0.14354503 0.68687224 0.23172845 -0.1674889 -0.20638369 0.39085543 -0.3147795 -0.02589764 -0.30387658 -0.08294853 0.48275298 0.20680657 0.30796698 0.44275287 -0.11668411 0.751787 0.123926684 0.41975754 -0.8725019 0.48958206 -0.09037969 0.6599148 0.073982574 0.12592568 -0.2772279 0.511938 -0.6776287 -0.38948253 0.067281194 0.20252213 -0.67236114 0.2549605 0.36475152 -0.023921529 -0.024153484 0.024253968 0.06396703 0.58286977 0.5304116 0.09904233 -0.0012322145 0.06781619 -0.35817897 -0.33698973 0.5647077 -0.112357214 0.21649364 -0.06664972 -0.6612811 -0.020392893 0.28346032 -0.34920648 -0.6104715 -0.0942398 0.27317572 0.6980669 0.12232429 -0.16051151 -0.26241812 0.26819122 -0.24126355
75 -0.15882277 -0.17373164 -0.31627515 0.27050668 0.3397348 0.6355707 -0.05589424 -0.23293486 0.10500682 0.17974862 -0.3222753 -0.48857114 0.650572 0.15657282 -0.55495375 -0.14176208 0.123877294 -0.30643368 0.4406404 -0.37026367 -0.42854556 -0.20689997 0.39801306 -0.43981278 0.06917524 -0.5474647 -0.2483869 -0.59199554 0.5777531 -0.078211434 -0.30249703 -0.556598 0.39133146 0.022511087 0.32352588 -0.15644263 -0.95666146 0.030532429 0.033697058 -0.068686865 0.3340163 -0.7643323 0.33966056 0.27946758 -0.04863956 0.43733066 0.2346607 0.49036947 -0.26978266 -0.40123916 -0.57819736 -0.06375284 -0.79007083 -0.37250385 -0.065675564 0.06592897 0.06607289 0.0501165 0.081480704 -0.1250245 0.6254445 0.4284637 0.6431983 -0.016312497
36 -0.21358104 -0.47503892 0.4020978 -0.63186693 0.1909919 -0.6455953 -0.044085998 -0.10841279 -0.08642404 0.2567916 0.09912409 0.016986031 0.3208337 -0.1303868 0.13813132 0.4602287 -0.08702444 -0.15703028 0.27909714 -0.3524754 0.32355094 0.21456149 -0.3849028 -0.04113555 0.24863505 0.05233644 0.09115495 0.1853426 0.7805327 -0.355797 0.19177534 0.30372488 0.41787162 -0.43614194 0.3124315 0.46303827 0.17324325 -0.23121853 0.026133755 -0.4309981 -0.52265304 0.44242105 0.161787 0.41967148 -0.5127394 -0.5060285 0.3541339 0.30553648 0.19729158 0.432066 0.29357508 -0.3314706 0.21083553 0.74653053 -0.3015173 0.0439068 0.047030784 -0.31941164 0.9175501 -0.048953265 -0.020708743 -0.395987 0.06866131 0.40306154
46 0.18694894 0.19408126 -0.33710712 0.20735395 0.5578373 -0.09751194 -0.088461906 0.18561646 -0.3770716 0.23176005 -0.15100555 -0.8152093 0.19309683 0.15424591 -0.0698427 0.5212327 -0.11498524 0.408855 0.13373388 0.2104053 -0.083977 -0.00074822345 -0.2284406 -0.29756603 -0.32491043 0.3270039 0.52410144 -0.28725716 0.48899943 -0.09364195 -0.7600328 0.08681057 0.010706184 -0.3432338 -0.1586104 0.109338544 0.04508217 -0.18715738 -0.13131577 0.642778 -0.38618478 -0.2941126 0.18135813 0.5223713 0.30597618 -0.010724344 0.12817551 0.1564812 0.17424072 0.16923401 -0.022001175 0.21593215 -0.6129609 -0.3172666 -0.51221794 0.42018744 -0.11622983 -0.123399004 0.43032438 0.34943798 0.8309149 -0.5608898 -0.17467967 0.02383733
25 -0.46350506 -0.2058617 -0.44230056 0.7446571 -0.6333695 0.31420118 -0.6198367 0.1397284 0.3751143 -0.16423461 0.17147234 0.17920424 -0.42890295 0.08713212 -0.46547464 0.594319 0.95727104 -0.65458417 -0.018248184 0.017641079 0.5859237 0.09432188 -0.17708856 -0.4362585 0.57793933 -0.099114105 0.28197873 0.17007129 0.43477553 0.39829817 -0.43744296 -0.30036986 0.007502193 -0.34777585 -0.035802327 -0.12445376 -0.7031062 0.39812478 -0.564359 -0.3711864 0.031229984 -0.38385603 -0.12486008 -0.026582543 -0.0963872 -0.14632316 -0.051770374 0.030245941 0.22403657 -0.8722628 0.0021311312 -0.44469798 -0.55085915 -0.43813416 0.6565549 -0.09404795 -0.39155924 0.3850746 -0.022256294 -0.107940674 0.36531246 -0.48706868 -0.036656775 0.29697514
3 -0.4552633 -0.15534717 -0.14213514 0.7978392 0.03347449 -0.28330588 0.13514453 0.3671096 -0.041570015 -0.14534727 0.10160679 -0.18667074 0.01672228 0.5138302 0.6075876 0.077421434 0.55414265 -0.30404893 0.06448683 -0.57963383 -0.2344906 -0.095340766 0.20578243 0.23960032 0.30559853 -0.646188 0.24536245 -0.13305311 -0.0488183 -0.10946924 0.49928883 0.33072516 -0.66399467 0.12798697 -0.13893284 0.047181834 0.05398206 0.49829343 0.23637725 0.25191158 0.44182992 -0.26057938 -0.05703538 0.04733458 -0.67534655 0.13236871 0.104762726 -0.1346014 0.24024858 0.09719244 -0.002680523 0.044863924 0.45463195 -0.3791164 0.25982305 -0.29131424 -0.11134941 0.90336835 0.03936731 0.7461024 0.4152686 -0.30128512 0.5022362 0.61566556
87 -0.5278614 0.14432204 0.16629069 0.14738816 -0.34617272 0.018472204 0.044614017 -0.22826517 0.60705173 0.21637379 0.18968008 -0.10477032 0.022205355 -0.33914685 -0.02686868 -0.27620146 0.58085954 -0.32015517 0.624799 0.0013301081 -0.16151081 -0.23734479 -0.16573128 0.013889404 0.12451439 -0.37167552 0.0006936864 0.32323807 0.075907364 -0.11336173 -0.01518789 -0.11530215 0.115387276 0.42937192 0.19247094 0.22061515 -0.19937949 0.71457285 0.82435364 0.009990014 -0.087422125 -0.24903332 0.25939044 -0.049802862 -0.37024775 0.09698199 0.15775016 0.28747818 0.5093753 -0.45501328 0.6100029 -0.5986778 0.38158423 -0.32428417 0.23254533 -0.8105985 0.11872179 0.31407788 0.0826363 0.17571531 0.41742054 0.26311177 0.38489732 0.04037317
49 0.46777174 0.31740594 0.14359498 0.18354781 0.24471058 -0.38704088 -0.060608137 -0.51329154 0.059422325 0.36205015 0.049119767 -0.24694487 0.33777618 -0.51775086 -0.062181663 0.40896377 -0.12867004 -0.5258169 0.2429218 0.10928519 0.29711077 0.7535212 0.2606252 0.038406823 0.45959046 0.2523372 0.3984463 0.62210464 0.13124777 0.11259232 -0.9155673 0.21947293 0.57730186 0.2477602 0.17102684 -0.04762425 -0.022369454 0.40287256 0.23428446 -0.07678776 0.34642076 0.751313 0.53714347 0.41841394 0.36018166 -0.37428266 -0.6211888 -0.1979928 -0.1642723 -0.12933093 0.07030934 -0.18438424 0.78493756 -0.6988777 -0.21718156 0.5752976 0.23945385 -0.26649725 -0.23389295 -0.058797784 -0.8480579 0.43425375 -0.26855502 -0.042807337
27 -0.63363016 -0.119841464 -0.05338794 -0.16126691 0.438689 0.3642943 -0.19612516 0.1278591 0.69807446 -0.09215154 0.7491441 -0.7668607 -0.41117492 -0.4263608 0.10109413 0.33599386 -0.09549001 0.6916036 -0.10553621 0.530563 -0.2496531 -0.7000683 -0.7996506 -0.68224466 0.0041819834 -0.57156056 0.514439 -0.20714502 0.1320874 0.29082122 -0.0053870957 0.13129114 0.0144041 0.35924023 0.016737815 -0.2444092 -0.39622158 -0.2225505 0.22743806 -0.09490884 -0.3125336 -0.5141379 -0.10504817 0.33537647 -0.4237937 -0.6588966 -0.18079214 -0.2873229 -0.4516702 -0.49540043 -0.15122226 -0.5287338 -0.45939207 0.43676475 0.32512563 -0.44641674 0.43413934 -0.5939995 0.27509797 -0.18478313 -0.2879189 0.54019064 0.34977573 0.096747205
70 -0.29148757 -0.452673 -0.02568488 -0.19965912 -0.20597893 -0.4102807 -1.0705625 0.0911432 0.12290887 -0.010402954 0.3708807 -0.5611086 0.030099407 -0.13671777 0.35586658 0.019430941 -0.37249917 -0.15012091 0.14073981 -0.34615362 0.2735668 -0.22737266 -0.010318495 0.15887004 0.32103986 -0.47499463 0.21431516 0.5253782 -0.14378227 -0.05040193 0.19343215 0.4210396 0.67829025 -0.10402481 0.10742454 0.494462 -0.18390785 -0.05016098 -0.34998608 -0.29771894 0.25064835 0.09921966 0.45843813 0.045602277 -0.08769403 0.4383307 -0.06875527 -0.22543451 0.1704045 0.39858568 -0.53439724 0.28108126 -0.015564034 -0.0034942992 0.795745 0.70987225 -0.31425285 -0.28999186 0.2680065 0.6468581 0.56985295 -0.26416132 -0.15451345 -0.027172195
50 -0.29588518 -0.20880473 0.55420214 -0.865692 0.24296343 0.32445517 -0.8175607 0.21151699 -0.16877794 0.13002503 0.41125837 -0.316497 0.67441964 -0.32413176 -0.10048901 0.24829234 -0.189727 0.07491884 0.0005947953 0.5140501 0.53376526 -0.02866198 -0.5032086 0.25219247 -0.75750345 -0.34463948 0.19618106 -0.13640103 0.1480227 -0.2957948 0.23833956 -0.8225263 -0.03911027 0.51987696 0.47812667 0.24131171 -0.07251108 -0.20875996 -0.05262725 0.45109537 -0.18586135 -0.34031233 -0.1493686 0.7726106 -0.43316147 0.13349387 0.4529095 0.2547435 -0.21193653 -0.4563186 -0.20482959 0.31620726 -0.35333908 0.47454086 -0.049173675 0.49014944 -0.13925906 -0.24932133 -0.04909404 0.26254067 0.3189672 0.4954766 0.1993705 -0.17319204
58 0.021337146 -0.41308862 -0.37342587 -0.26105958 -0.15706126 -0.2765127 -0.5486909 0.11270373 -0.15043542 -0.26892686 -0.37518787 -0.38768294 -0.32775745 -0.3385603 -0.077994 0.2808504 0.62658757 -0.30561185 0.07358151 -0.0935215 0.44048795 0.710586 -0.20782736 -0.1305327 0.5588908 -0.20079862 0.18081239 -0.16818781 0.605334 0.1332803 -0.28744465 -0.4866796 0.43486768 -0.75516737 0.08253942 -0.018727506 -0.072223015 -0.28733617 -0.6548187 -0.18945363 0.061800234 -0.14454058 0.21154337 0.17118028 -0.26798925 -0.4045156 -0.24472697 -0.2030638 -0.1455625 0.019660532 0.21885112 -0.19855656 -0.14805686 -0.35458034 0.33832878 0.73520094 -0.30399862 0.21397324 -0.27450812 -0.32039505 0.055381935 -0.103130594 -0.57794267 0.30060446
7 -0.11823592 -0.73948616 -0.029034281 0.02352455 0.53201336 0.19018303 0.14271277 -0.15152659 0.4066679 0.045265514 -0.58383965 0.33439618 -0.03489273 0.16235621 0.18906736 1.0027553 -0.46918368 -0.64894235 0.20943528 -0.16863367 -0.5734799 0.3133642 -0.44315222 0.9225799 0.050868858 0.15058008 0.1812015 -0.27002102 0.343637 -0.024610143 -0.4331013 0.19867486 0.24892949 0.08875755 0.3474887 0.3772838 0.05071203 0.5247294 -0.22905299 0.26420137 0.105054766 0.0832062 -0.06892391 0.04654387 -0.2424151 0.25767472 0.23998742 0.86339897 0.05006833 -0.19052923 0.28141108 0.09315783 0.34111348 -0.690728 -0.2882792 0.025830014 0.33722824 -0.41673097 -0.14841247 0.1970154 0.31531608 -0.23013924 0.44080988 0.7121032
94 0.18140262 -0.15476562 0.39647967 -0.17915976 -0.15984537 0.058248322 -0.07131508 -0.17636433 0.3394059 -0.048083376 0.68752 -1.1542757 0.15386692 -0.05600926 0.32906485 -0.35161036 -0.009302071 -0.12448221 0.3417254 0.6774467 0.27246702 0.34222174 -0.12596013 -0.15065937 -0.007511456 0.107764386 -0.25771624 -0.5913876 -0.20894818 -0.041525442 -0.16165203 -0.0320709 0.014130787 -0.31067568 0.3009544 0.01325432 0.08104661 -0.10135619 0.24502221 -0.019609133 0.12554711 -0.51600707 0.44417992 0.65364254 -0.23248331 -0.18460505 -0.4016272 -0.09773762 -0.36761284 -0.044558626 0.6165459 -0.0037239415 0.0764861 -0.17372613 0.20579465 0.4074886 -0.16321005 -0.44163597 -0.5275097 0.4584123 0.14419656 0.47751036 -0.056653462 -0.4934905
92 -0.22814895 0.28467143 0.18046719 0.47149602 0.2688129 -0.13035156 -0.18943617 0.16746153 -0.40082684 -0.090367824 -0.01841547 -0.26411995 0.073126085 0.011473846 0.25509578 0.8705983 -0.29795542 0.2937097 -0.22236423 0.32068524 0.0023509727 -0.15755346 0.024888633 0.12664233 -0.578433 -0.34662098 0.22058529 -0.2357477 -0.5326398 -0.019550068 -0.39251474 0.50538087 -0.20116802 0.04712466 0.48146114 -0.31493086 -0.18648316 0.30568656 0.3277036 0.03399669 -0.15558013 0.442407 0.0035531851 0.29848146 -0.18493919 -0.052502465 -0.063141495 -0.2979237 -0.5363836 -0.09097888 -0.12885754 0.39060864 -0.30354825 -0.15601577 0.29579547 0.445015 -0.56329674 -0.023655504 0.19637614 0.5013038 0.03221166 -0.09981811 0.17549717 -0.4448424
37 -0.13521543 -0.00015784208 -0.3971858 -0.5284475 0.5123412 -0.11023416 0.33838564 -0.07419646 -0.10923916 -0.07919333 -0.28571585 -0.28291088 -0.19879282 -0.08336549 -0.16073762 0.2024176 0.57368857 -0.19893464 -0.39616746 -0.026811203 -0.71293116 0.49234134 -0.1202778 -0.42337096 1.0084376 -0.075225115 -0.5361989 -0.19587834 0.16517758 0.5250543 -0.6284043 0.2707958 0.44206014 -0.29849193 0.26696143 -0.6539039 -0.5254185 -0.15987554 0.1901317 0.17933142 -0.1447511 0.018697126 -0.1414284 -0.1444657 0.31635186 -0.01628386 -0.16061115 0.73218197 0.15363666 -0.5752352 0.88989717 -0.19850852 -0.2420718 -0.51259667 -0.18091011 0.3676604 -0.0518932 0.33390915 0.29990804 -0.09043069 -0.3511866 0.66694975 -0.1981691 -0.027900163
71 -0.21709049 0.3286859 0.11849868 1.2228488 -0.38833812 -0.11696503 0.7838416 0.21581933 -0.17652754 0.42325586 -0.025088005 -0.30028826 -0.2375942 -0.46081606 0.11855098 0.60148275 0.09585045 0.28434607 -0.10535318 -0.87778693 -0.37398082 0.15718758 -0.16101837 0.5993057 0.15709765 -0.078320704 0.546506 -0.76195997 0.055488043 -0.49766347 -0.48599294 -0.09829157 -0.22931382 -0.39400557 0.20437673 -0.4962226 -0.46189675 0.11260795 0.10581953 -0.2671325 0.05228492 0.25473738 -0.42119068 -0.20529296 0.067690656 -0.07082184 0.19720642 -0.7394616 -0.3027791 -0.14827622 0.6377246 -0.032020044 0.16910088 0.15742631 0.47004083 -0.24629 0.04459661 -0.032619126 0.035643406 0.19898278 -0.23260163 0.48852676 0.46909824 0.62539035
80 -0.112991795 0.07695316 0.45915398 -0.018244056 0.20864362 -0.08310038 0.13556647 -0.44546077 0.5834006 0.27256706 0.07827655 -0.030306105 -0.20254046 0.27837822 0.1248579 0.3732796 0.31069118 -0.93937933 0.16635685 -0.22081102 -0.21261111 0.26145124 0.05293651 0.09609384 0.52785116 -0.06417203 -0.42516932 -0.17148876 0.5716816 0.40393132 0.16227663 -0.14236517 -0.26534402 0.15281065 -0.077664524 0.07540816 -0.13504505 -0.120707005 0.19901069 -0.18871462 -0.4816547 0.34639066 0.23472196 0.7189313 0.07590733 -0.30777436 0.38491875 0.0127913905 0.22300494 -0.14483659 0.69558555 0.37070182 0.6213577 -0.0695905 0.3176747 -0.31895447 0.091847226 0.2899194 -0.2622413 -0.043557078 -0.51944053 0.61044586 0.00011727473 0.38126037
44 0.14349923 -0.51957285 0.5205765 -0.22835274 0.37739027 -0.07460042 -0.8917552 0.25224417 0.105231054 0.2540349 0.12236525 -0.29357865 -0.3124595 -0.560383 0.18023226 0.43382496 -0.3282149 -0.617687 0.20387413 0.6383799 0.024703635 -0.42527393 -0.08079303 -0.2264127 0.3115171 -0.25541008 -0.11316826 0.38071194 0.4454379 -0.12828593 0.42013615 0.08357967 0.4960173 0.29164997 0.14420617 -0.074967586 0.27517435 -0.12768897 -0.44519478 -0.21946914 0.29009226 -0.30320817 0.34700376 -0.143266 0.3273024 -0.1074636 0.18911026 -0.24091066 0.37084714 0.24428606 -0.3889909 0.2408973 0.5828157 -0.15978964 0.11233908 0.5576806 0.28598374 -0.5095367 0.17742339 0.008892135 -0.3399003 -0.46915334 0.5184561 0.045196705
29 -0.5910727 -0.15793046 -0.123893194 0.62100285 -0.03304633 -0.3578633 0.09158553 0.39638832 -0.0829222 0.41582945 -0.30444846 -0.19305168 -0.12923422 0.20643516 0.03701121 0.35558936 0.15741761 -0.7045388 0.20654152 -0.16530116 0.11199839 0.18442729 0.10806385 0.86672276 0.32503974 -0.18127531 0.400589 -0.07316182 0.11505756 0.02578859 0.024747152 0.5424639 -0.033458814 -0.77389395 -0.18612817 -0.13541675 0.21624126 0.27521047 0.12547924 -0.11260533 0.46044198 0.73865837 0.11201149 0.10494703 -0.50897753 0.08583456 -0.5791601 -0.11891177 0.23687918 0.35721293 0.1939563 0.18255983 0.6850921 -0.27632615 0.5773205 -0.13029782 -0.109074086 0.09468954 0.2511645 0.078130245 0.5072632 -0.19374791 -0.03732353 0.12612225
63 0.46945137 0.5410289 -0.27260086 0.31527263 -0.022126684 0.22527389 7.760485e-05 -0.11693567 -0.33801907 0.23448175 0.024086587 -0.6954849 -0.03717821 -0.0100776935 0.8207377 -0.11601556 0.76819545 -0.19470198 0.12436508 -0.2389269 -0.4387844 0.8216627 0.18518001 -0.033724923 0.93784076 -0.2627254 -0.40530452 0.22282895 -0.22099313 0.3274752 -0.18810993 0.23356876 -0.0031278022 -0.0897771 0.47119704 -1.0898696 0.5889321 1.0086085 0.029209554 0.1771785 0.48913467 -0.2558545 -0.1739609 0.4170101 -0.23501597 0.07789966 -0.17563324 0.17263758 0.021414815 -0.2665756 0.6818738 0.576039 0.07300401 -0.27670708 0.23477589 0.38478768 -0.213031 0.43412283 -0.04322433 0.58016217 0.18312263 -0.030786877 0.27198416 -0.2944466
45 0.72259355 -0.39851668 0.095745966 0.15751153 0.02075195 -0.05899127 0.108847804 0.11333086 0.60591877 0.6987988 0.2635428 -0.06671332 -0.62264603 -0.12877834 0.2258559 0.54752433 0.37040776 0.06740877 -0.17981957 -0.023172397 0.4281113 0.16458154 0.56561106 -0.55528563 0.07986623 0.559133 0.06821014 0.26141983 0.5945646 -0.04299131 0.14749508 0.085664265 0.12495494 -0.046399236 0.18046667 0.98429966 0.26354602 -0.028166313 0.20607395 -0.47114378 -0.5349915 0.16834646 0.26735443 -0.031131433 0.06729777 -0.6404558 0.25488654 0.31074798 0.053044986 0.560786 -0.05595093 -0.16809238 0.353146 -0.43058145 0.25130525 0.2966194 0.4302163 0.49148187 0.31826198 0.1681214 0.14569888 -0.8352807 0.019098826 1.1048024
42 -0.29156178 -0.109104834 0.100624554 -0.333769 -0.039377365 -0.13126247 0.01932115 -0.31802753 0.20260055 -0.24410962 -0.0724639 0.30572695 -0.49115637 -0.0445949 -0.11213436 0.6468669 0.08545631 -0.49603057 -0.02846658 0.19981849 -0.4704687 0.05450445 -0.55474794 0.02626512 0.41660964 -0.3082775 -0.34888756 -0.21491705 0.37641385 0.2393519 -0.6533534 0.3504103 0.20442803 -0.13227293 0.17179257 -0.08965321 -0.057515282 0.0015278005 -0.05264785 0.27903223 -0.100904495 0.03963239 0.26003724 -0.083308995 0.5197995 0.07480179 0.051577237 0.5988661 0.3003132 -0.5247671 0.46591032 0.08185335 0.13374333 -0.36375204 -0.40621918 0.08333918 -0.41681543 -0.049602088 0.032264218 0.034719594 -0.60527825 0.15647143 0.29974872 -0.17195283
1 -0.94386244 -0.19133458 0.21275735 -0.47984445 0.05851441 0.12658405 -0.33639914 -0.20685123 -0.21904404 -0.24000877 -0.028842244 0.051844522 0.6241339 -0.315593 0.004044095 0.3578107 0.19665633 0.45108318 -0.11585523 0.018236028 0.61482155 0.22616096 -0.46860412 0.8581739 -0.46402973 -0.6922272 0.45038342 -0.032518767 0.34974766 0.29995596 -0.24022086 -0.3646291 -0.014487799 0.39382946 0.31386018 0.19535239 -0.22254443 0.065185234 0.108647496 0.5017361 0.0759282 0.035906836 -0.0020055254 0.18926221 0.057242543 0.27122095 -0.05491148 0.0575547 -0.3043639 -0.19120723 0.03888212 0.3471499 0.45996052 -0.0047808765 -0.26018953 0.002526282 -0.91612685 0.21913335 -0.30194652 0.2600408 -0.5258025 0.9076282 0.4060649 -0.19408241
41 0.36242655 -0.4601618 0.507656 -0.41281086 -0.3336392 -0.34870845 0.1976027 -0.6261211 0.15150587 -0.17960861 0.52640927 -0.26947773 0.062239707 -0.41882706 -0.08643952 0.25931457 -0.4063974 0.57112914 -0.1660831 -0.19769983 -0.09875524 0.07739407 -0.50225616 -0.78647 0.34107563 0.11658515 0.6351469 0.21061884 -0.28097653 -0.9728229 -0.24241805 0.15421703 1.1068121 -0.1717497 0.35486478 0.16283888 -0.2983091 -0.48906967 0.10032757 -0.44319582 0.07287498 -0.37782896 0.41050622 0.45988345 0.42717868 0.34347898 -0.112690575 0.2510597 0.35436368 -0.34731668 0.39662477 -0.17105953 0.040460937 0.40938458 -0.38026255 0.38634458 0.55073583 -0.74288195 1.0738119 0.15458502 -0.3997589 0.0060636955 0.48640212 -0.10084597
35 0.1550369 -0.40427503 0.69702935 -0.48489162 -0.74062675 -0.23202144 -0.47098377 0.07323189 0.24171013 0.5761824 -0.10458386 -0.22707374 -0.8351831 -0.87361944 0.58858585 0.028293373 0.7255433 -0.20897573 -0.18084359 1.3288306 0.27383047 0.21329415 -0.1684037 0.10296597 -0.016227877 0.08821601 0.0024551572 -0.22089162 0.09247737 -0.033033717 0.22258611 -0.18813723 0.09345864 -0.67512476 -0.071383655 -0.037597075 0.39875376 0.20084983 0.12723231 0.29304317 0.34322348 -0.4244119 -0.0555265 -0.12280561 0.18446909 -0.01031754 -0.25262657 0.049463183 0.19909579 0.046497855 0.7119482 0.04758677 0.097179666 -0.31638038 -0.05205884 0.07488432 -0.65672493 -0.16102321 -0.03846638 -0.07724194 -0.046800863 -0.018251998 -0.112363994 -0.28333884
59 0.5083604 -0.5101857 0.2658051 -0.3534723 0.31957301 0.2456615 -0.23754938 0.3466891 0.34053954 0.09900556 0.24577105 -0.42564332 -0.34687847 0.042759273 0.122532 0.44700488 -0.20444024 -0.15356119 0.064188324 0.07736056 0.33931455 0.38336363 -0.3848462 -0.23891644 -0.100232236 0.08311215 -0.21048717 0.14520897 0.038233392 0.4954973 -0.29852077 0.23806828 -0.28138843 -0.32687744 0.2967254 -0.13537194 0.17114006 0.47050035 -0.28955895 0.010827398 -0.6598719 -0.5377293 0.17959519 0.13592249 -0.41342407 -0.36162886 0.26270023 0.5125299 0.25223982 -0.20202582 0.6481973 0.20304446 -0.35842487 0.08418663 0.0011969899 0.5644226 -0.07026652 -0.8693172 0.44844097 0.5665383 0.291732 -1.1522875 0.43216926 -0.166018
54 -0.15958019 -0.17676343 -0.28218544 0.16639888 0.025585033 -0.7059267 0.22000402 0.45759782 0.06050471 0.12762071 0.6350274 -0.5621418 -0.088289894 0.20474418 -0.30643225 0.10200535 -0.6757398 -0.08680032 -0.24137238 -0.053160645 -0.36646098 0.15100434 0.18911654 -0.52331066 -0.17908132 -0.07452976 0.47227624 -0.5131694 0.2855682 -0.076931745 0.07044161 0.7903499 0.06937954 -0.026609479 0.20200035 0.65881 -0.630808 -0.6436504 -0.34295076 0.2976689 0.1667974 0.03490188 -0.03927794 0.19198589 -0.7968087 -0.2762528 0.067321494 -0.22151856 0.13965559 -0.4237649 -0.3628719 -0.2165456 0.19953874 0.1413389 0.026726024 0.45250028 0.23162016 -0.42666233 0.22180687 0.21248026 0.6061058 -0.094973914 -0.005500461 0.4281008
4 -0.41646418 0.11019514 -0.2549958 -0.10567228 0.01382184 -0.15520398 0.16656129 -0.0034641323 0.23628484 0.21879265 0.17815687 -0.3153822 -0.35085288 -0.13307819 -0.5867913 0.8845848 -0.22703089 0.25226116 0.56198245 0.03401581 -0.39262673 -0.34044525 -1.3113841 -0.49951035 0.2894191 0.18177366 0.16971439 0.3373087 0.23999962 0.07827161 -0.4351285 0.50687116 0.17111066 -0.26950735 -0.11905393 -0.1898053 -0.19360523 -0.21318322 0.779996 -0.3036839 -0.6375714 -0.22064953 0.4044501 0.45494273 0.19289064 -0.36586797 -0.6208929 0.11194007 -0.09964555 -0.14292364 0.626666 -0.55236214 -0.42132628 -0.23550873 0.25823918 -0.39551523 0.27393937 -0.55866426 0.37510684 -0.46306208 0.25355652 0.04634297 0.29973274 -0.3355369
2 -0.47126085 -0.03369933 0.65399194 -0.34272012 0.054895837 -0.45491982 -0.06908051 -0.24507724 0.24075262 0.3654118 0.6530314 0.24524023 0.44735458 0.10586374 -0.73072004 0.28490835 -0.41406718 -0.2645207 -0.05918908 0.4716612 -0.16791388 -0.009064863 0.01512234 0.008092471 -0.00044337977 0.11651448 0.10487574 0.42955235 0.17737798 -0.64390135 -0.055314783 0.08054934 -0.051104337 0.436195 0.7080617 0.17881331 -0.20465088 -0.08264847 0.7153068 -0.17897364 -0.21106419 0.7429674 0.5973203 0.37770978 0.25650322 0.06437621 -0.020320065 0.14496708 0.24485148 -0.41258845 0.26472107 -0.024922574 0.3961876 0.30521664 0.13326074 0.56626546 0.57519466 0.17880966 0.32210135 0.35620356 -0.6022654 0.3157148 -0.30572617 -0.23524861
57 0.2099769 -0.071761474 0.46873116 0.6752093 0.13161178 -0.1489807 0.44910917 -0.17159252 0.098470576 0.5460471 0.16030876 -0.27355453 0.0208799 -0.04163001 -0.020627411 0.6741516 0.39786184 -1.1476204 0.9059146 0.60130006 -0.33802417 -0.40744942 0.04435212 -0.26081663 0.6437045 0.66836077 -0.16343842 0.31887612 0.02702334 0.13091755 0.33989513 0.04453319 -0.3276706 0.16368662 -0.18861829 -0.3471395 -0.74395746 0.20315476 0.019342126 -0.31538224 0.075741805 0.33025774 -0.35152152 0.528152 0.58631164 0.08552216 -0.17035496 -0.12007424 -0.07743509 -0.3721953 -0.15368655 -0.087399706 -0.23808518 -0.48573112 0.28690436 0.2419605 0.5352755 0.09366816 0.3092617 -0.256765 -0.09289981 -0.46519268 0.0071653104 0.27135864
85 0.05806719 -0.19316371 -0.37087786 -0.2648942 0.7733644 0.34079337 0.24697094 0.11475691 -0.14384072 0.61766356 -0.44588456 -0.53505087 -0.12013455 0.17186464 -0.26545554 0.01995397 0.27835202 -0.23414227 0.736082 -0.3636826 0.21409412 -0.34415707 0.3075061 -0.30467045 0.12441911 -0.11917668 -0.59328 -0.2872267 0.62354267 0.05357796 -0.09456805 -0.50109625 -0.013343006 -0.053673275 -0.060783844 -0.31651083 -0.09691602 0.30707934 0.80168587 -0.15149057 -0.09308901 0.27527705 0.34751993 -0.36932352 -0.034383282 -0.12321773 0.14982067 0.7725091 0.5453286 0.34161112 0.36356255 0.16655989 0.37164345 -0.32790035 -0.6092253 0.18732914 0.56560874 0.22232878 0.18615945 -0.21793485 0.22756816 -0.35901415 0.6997672 -0.16831861
81 0.11510647 0.34946805 0.46342584 0.53805226 0.3088379 0.030287372 -0.2182222 0.19608551 -0.4685638 -0.01772388 0.44667998 -0.5836623 0.0849855 0.29757518 -0.7893379 0.07017788 -0.18379089 -0.5662538 0.79550225 0.09194049 0.76035935 -0.7562066 0.028735604 -0.8105246 0.2864349 0.2247369 -0.16203038 0.15500133 0.021640388 -0.014917011 0.20375961 0.07388168 -0.32140476 0.6478656 0.013492717 0.1543801 -0.12747881 -0.21462066 0.62374824 -0.35321814 -0.03703334 0.3103422 0.7010926 0.34162447 0.7274807 -0.43443355 -0.016730115 -0.27855134 0.17806609 -0.08813518 -0.0074810353 0.46075296 0.7288486 -0.44544888 0.12343458 0.31556213 0.1771672 0.32639834 -0.23231554 0.5342253 -0.05597105 -0.5074232 0.40392533 0.026995344
84 0.1710102 -0.18981089 -0.11190286 0.009310697 -0.188288 -0.53275406 -0.08801806 0.35251293 -0.2538882 0.6194065 0.66143304 -0.27335805 -0.005327121 0.018477218 0.33649325 -0.22206543 0.21104893 -0.41563612 -0.49597976 -0.41765344 0.3237768 0.1184303 0.16170354 -0.3880667 0.333348 -0.40416384 -0.091332994 -0.042389818 0.39288008 0.5116233 0.111264996 0.8356226 0.083473146 0.09832994 -0.33536026 0.20334831 -0.016201025 0.25996193 0.013539175 0.19590972 0.19149211 0.19793631 -0.13348831 -0.08339819 -0.18107215 -0.026558502 0.01946165 0.25611958 0.5111315 -0.27427685 -0.32614934 0.14439946 0.65774786 0.07004448 -0.42742643 0.40955356 -0.11828233 0.017363336 0.32860354 0.27621424 -0.2090226 0.09367681 0.38634336 0.24003834
77 -0.6242807 0.1591909 -0.000761532 -0.22245167 0.4196786 -0.022729691 -0.19127965 -0.2532609 -0.195541 -0.20624943 0.14332175 -0.176043 0.38432485 0.57053614 -0.2970796 0.12991773 0.42474538 -0.71093374 0.37291798 -0.72466975 -0.22047776 0.16787483 0.043837946 0.14044651 0.60180604 -0.48817325 -0.31816292 0.30884132 -0.034552086 0.38171554 -0.42042145 0.22616749 0.06833293 0.09280114 0.28015503 -0.38260034 -0.4613166 0.44202605 -0.15056285 -0.10305469 -0.14281826 0.2268699 -0.019185234 0.28238767 0.22333153 0.114086606 0.28185195 0.58656126 0.36886466 -0.6060809 0.19572347 -0.050548185 -0.22716555 0.06860505 0.005230451 0.5275751 -0.19718874 0.36099955 0.22163112 0.48675516 0.1777622 0.16552034 -0.21980655 0.09725479
12 -0.29797703 -0.6638364 0.6200948 -0.5532206 0.035901133 -0.52651775 -0.35258058 -0.03243149 0.5378652 0.2507549 0.50893337 -0.4378606 -0.21728382 -0.91394085 0.46198964 0.18936116 0.24878265 -0.63961065 -0.6482888 0.47092468 -0.12603165 -0.91385096 -0.15603286 -0.37157908 0.08475144 -0.52576053 -0.018865665 -0.03377283 -0.3186007 -0.5122082 0.9193001 0.0806308 0.1270278 0.21657304 -0.17505074 0.32812163 -0.40658572 -0.19002022 0.4780073 -0.75449556 -0.4903722 0.27661735 -0.4485755 0.06762852 -0.25846863 0.035093125 0.20203719 -0.2469445 0.14301278 -0.064819224 0.17278764 -0.30929136 0.49836293 0.4274274 0.49458957 0.30571368 0.41722295 0.10425442 0.3627935 0.16003239 -0.32847694 0.31828707 -0.42199647 0.4453977
51 -0.0067850784 -0.10907876 0.03529215 -0.041984204 0.0289266 -0.007212576 0.3323817 -0.069245555 0.5589061 -0.012901155 -0.14801292 -0.19616036 -0.39043224 -0.30797216 1.2203082 0.790405 0.3203587 0.014678699 0.26713935 0.21552093 -0.30734357 0.14056112 0.285842 0.5788226 -0.42933682 -0.27560368 0.37051877 -0.450448 -0.4028532 -0.6877709 0.5537996 -0.15845259 0.23632246 -0.47032586 0.15271315 0.13385126 -0.3029707 0.053002335 -0.05967573 0.46342888 0.47241944 -0.23756994 -0.59245986 0.3592393 -1.0254065 0.1942034 -0.30539513 -0.33953026 -0.43670386 0.46952188 0.1591814 0.34343767 -0.053966727 -0.1923591 0.027069291 -0.13891713 -0.4179549 -0.058648724 0.31667507 0.4638329 0.14730063 -0.12291738 0.32631198 -0.3090927
38 0.08129035 -0.42282057 -0.21191216 -0.13450521 0.63808304 0.31012875 -0.09435999 0.518072 -0.11337209 -0.012447137 -0.54663634 -0.14330113 -0.3370432 0.19042377 -0.44792318 0.7816116 0.33192754 -0.6232554 0.070330165 -0.1410192 0.05970567 -0.6510142 0.050072968 -0.075317904 0.19728252 0.2779698 -0.32529488 -0.62364846 0.030694906 -0.41469958 0.076327994 -0.60549194 0.0006754938 0.42797634 0.37616175 0.008507557 -0.40848774 0.23993039 0.88808525 -0.89887106 -0.26095927 0.9954486 0.26768512 -0.5227264 0.17973079 0.095447235 -0.21763995 0.011764468 -0.53020155 -0.06985223 0.48879552 -0.058183726 -0.15576977 -0.6041667 0.35892373 0.28997633 0.45553738 0.45854428 -0.48780468 0.33636367 -0.43044382 0.29641244 -0.13415669 0.11645222
93 -0.050294265 -0.051459786 0.943666 0.05290225 -0.025196023 -0.7926918 -0.11831818 0.21284544 -0.25816038 0.7377329 -0.36842912 -0.38172746 0.04407475 -0.8325402 0.50973594 -0.44347993 -0.40772167 0.10412267 0.2025815 0.47442913 -0.6033022 0.57218313 0.25640845 0.56391585 -0.40862918 -0.34380314 0.23143804 0.00806986 0.8848761 0.28813607 -0.13973151 -0.018413568 0.18085118 0.14190407 0.42614728 0.20932692 -0.24808958 -0.2825619 -0.24671243 0.4983047 0.2846028 0.13387491 0.45177892 -0.16486096 0.20652185 -0.04309476 0.80510116 -0.71713024 0.15695292 -0.1841089 -0.47785518 0.28422672 0.31447393 0.08511342 -0.27951485 -0.026362868 -0.10021561 -0.69956595 0.17655681 -0.10167935 -0.27355725 0.19403136 0.101554975 0.44377548
91 -0.5766483 0.12552688 -0.39721355 -0.07467453 0.2188945 -0.020954387 -0.45003754 0.42723745 -0.205062 -0.031525485 0.25820383 -0.41587484 0.74558717 -0.6084145 -0.578181 -0.42371926 0.0018289124 0.22103997 0.8709715 -0.036120787 0.29881692 -0.032626547 0.26588455 0.40817305 -0.22928697 -0.43933767 0.82282454 0.19815832 0.24821106 -0.326474 0.09668572 -0.9537616 0.366503 0.59925884 0.50981516 0.357699 -0.5534452 -0.26950034 -0.13954996 0.28533047 0.63957864 -0.007094516 0.043293916 -0.08379618 0.10109307 0.0019816565 -0.22084083 -0.28324574 -0.25111008 -0.06855736 -0.45518905 -0.2108094 0.32429567 -0.27021956 0.36538532 0.36069208 0.19346468 0.22864343 0.087866 0.31022087 0.5547249 0.08417153 0.23491919 0.11432882
32 -0.24393767 0.044586875 -0.68658185 -0.484713 0.33948633 0.41142142 -0.5372678 0.24120468 0.37449706 0.37865213 0.32874063 0.11964588 -0.28590584 -0.105805114 -0.4645025 0.3084765 0.11364475 -0.56440103 -0.014863948 0.35863936 0.46793595 -0.10518318 0.35928237 0.06639485 0.2707716 -0.1660601 -0.11356461 -0.44783574 0.4997709 0.29252565 -0.19993453 0.05252765 -0.10311639 -0.005160554 0.044307016 0.24617924 0.30571818 -0.12383775 0.048966028 -0.23935309 0.12142159 -0.029896403 0.5575405 -0.044648387 0.87780523 -0.4090283 -0.69111097 0.4707455 -0.60796136 0.254901 -0.15605961 0.23186769 -0.042164687 -0.4923365 0.26211464 0.35919183 -0.85445005 0.30124995 -0.3282466 0.64866215 -0.3984958 0.45054758 0.2984285 -0.19566956
83 -0.24977355 -0.046851363 0.44362575 -0.09569807 -0.40246707 -0.020473555 -0.09263095 0.21976367 -0.46633932 -0.35777888 -0.19262597 -0.88006145 -0.41932127 -0.031320717 -0.59718275 -0.41958657 0.6217707 0.03468137 -0.3971178 0.26124716 -0.31009576 -0.55590373 -0.27352804 -0.7550436 0.09326546 -0.2478065 0.15558206 -0.3320967 0.05592124 0.28142014 0.6918856 -0.33129296 0.47818115 -0.27023196 0.55715424 -0.47191098 -0.9083128 -0.11362563 -0.073933885 0.15351686 -0.22376463 0.029508509 0.04998474 0.004109779 0.18285741 0.48594296 -0.017046213 -0.77445453 -0.11695878 -0.93151665 0.14689125 0.48227796 -0.2594867 0.26784265 0.60714245 0.010010142 -0.3200492 0.20539005 0.3908338 -0.05853958 -0.13551916 0.46546686 -0.26658466 0.03815883
0 -0.24324666 0.044507943 0.118500374 0.67084485 -0.6319394 -0.004723505 0.25774112 0.22653766 -0.09851621 -0.23438488 0.75032973 0.55395645 -0.16235207 0.40193453 0.05252978 0.4530182 0.20415886 0.14704373 0.10029082 -0.59110075 -0.45518044 -0.29010376 0.5699433 -0.09957171 -0.5635767 -0.85204476 0.539796 -0.24776821 -0.5753268 -0.096860446 0.85498405 -0.1877629 -0.3317889 1.1312065 0.12710804 0.15516824 -0.6347009 0.037220262 0.28030786 -0.32116857 0.19263476 0.055767406 0.06589687 0.4220279 0.32142073 0.292898 0.28960165 -0.45708343 -0.2660531 -0.31225777 -0.5589524 0.5705896 0.23414567 -0.13142069 0.38653466 0.33659053 -0.047506943 0.46344286 -0.2288793 0.31450626 -0.4271494 0.571919 1.0688912 0.52217895
99 -0.27064496 -0.6126415 0.6705782 -0.12287399 0.10852201 -0.038211577 0.007715091 -0.3331285 0.32897392 0.096450135 0.17314011 0.4441998 0.78306806 0.009685011 0.26217523 0.9943155 0.4418569 -0.12369451 -0.30375275 0.006251582 0.47379115 0.75569767 0.036650103 0.4063256 0.33371642 0.011426013 -0.23417881 0.5700519 0.41410995 -0.3081856 -0.05530039 -0.4861383 -0.43047574 -0.2419441 0.366615 -0.13672738 0.015103896 -0.12948008 0.1280089 -0.0048534214 -0.080345616 -0.39887276 -0.00034343358 0.7159102 0.13764678 0.28029892 -0.039852083 0.5005171 -0.0048755794 -0.06030041 0.3700671 -0.06425282 0.13590275 -0.16768761 0.1558628 0.5057674 -0.004247858 0.7005937 0.24064511 -0.05812913 -0.55510646 0.38955873 0.4812223 -0.23085366
98 -0.28721303 0.30202252 -0.23280664 -0.05161531 0.80915403 0.07781632 0.701455 -0.49370697 0.7191169 0.13250682 -0.062854365 -0.42430705 0.013682384 0.41236994 -0.12670535 1.164342 -0.148629 -0.52453965 0.42473724 -0.78704375 -0.8629845 -0.44765025 -0.52309024 0.47021735 -0.020394132 0.02374841 0.39851207 -0.3272738 0.30540568 -0.22225694 -0.6191305 0.45708895 -0.22630458 0.11257499 0.17325288 -0.17749082 -0.98138154 0.3927037 -0.077427946 0.15120615 -0.48143366 0.29907885 -0.3308527 0.29082412 0.018041775 -0.19632588 -0.15963332 -0.4276967 -0.7669069 -0.19158986 0.38790613 -0.19247852 -0.36560705 0.34893456 -0.2652854 -0.36582145 -0.23323031 -0.5353262 0.24512175 0.71023405 -0.6072124 0.36360833 -0.20875014 -0.04985879
60 0.35389328 -0.3720133 -0.24321559 -0.612942 -0.17124115 -0.2497905 -0.34957683 -0.28366587 0.30194724 0.08755996 0.76925164 -0.8373081 0.010572214 -0.28015077 0.87481815 0.039069332 0.30741587 0.3034239 0.25983205 -0.15777871 0.43011656 0.7503099 0.32665917 -0.25862825 -0.24824193 -0.6047258 -0.28607076 0.07695373 -0.18856382 0.49125615 0.13131009 -0.027096728 0.5155639 -0.080331236 -0.38981637 0.49708158 0.2629987 -0.71677667 -0.066514395 -0.14239688 -0.046942655 -0.6452287 0.46809164 0.8134457 -0.038099173 -0.16402917 0.07542921 0.47201467 0.17642339 0.6769048 -0.27169478 0.054010224 0.06241439 -0.12881501 -0.04782002 0.5049553 -0.2005437 -0.2937802 0.03990512 -0.13577932 0.6289606 0.43516195 0.5561249 0.036223818
9 0.17528054 -0.15660045 0.4714662 -0.16919626 -0.23279954 -0.2679974 0.038598843 -0.143259 -0.31616348 0.7098703 -0.17953384 0.0010313356 -0.16672471 -0.5099935 -0.02799654 0.21884494 0.280284 -0.2037434 -0.9502524 0.34341648 -0.22399507 0.86898726 -0.3250947 0.15242375 0.014414777 0.007660725 -0.13044158 -0.3038124 0.844926 0.7273216 -0.3743069 -0.1148515 -0.32495037 0.28921792 0.027777672 -0.30775437 -0.31575227 -0.0142059885 -0.17312765 0.28706235 -0.2809535 0.27396753 0.14931767 -0.096999615 0.33411694 0.34027702 0.49447408 -0.008039062 0.37604347 -0.9361462 0.2269677 0.6395204 -0.042129368 0.02863354 -0.5584289 0.41601768 -0.03519367 -0.0919918 0.058403708 0.1119205 -0.9773039 0.69537896 -0.05370647 0.3640142
97 0.37328178 0.18645187 -0.38222566 -0.29916942 0.29892665 -0.04993224 -0.10297149 0.75963724 -0.9011271 0.7715522 -0.4524753 -0.45297858 0.007096215 -0.44119316 -0.052956913 0.15081981 -0.120521426 0.2622765 0.14887896 -0.23462726 -0.43008354 -0.07201892 0.16807355 0.07408099 -0.09967362 -0.2806091 0.25513774 -0.29079494 0.094166815 -0.20407873 -0.372984 -0.17724356 0.38372844 0.1487282 0.29226705 -0.22181047 0.21858273 0.21873866 0.20685455 0.45325804 0.60206765 -0.50090617 -0.3087886 -0.44048432 0.5165944 -0.09229474 0.13864535 0.56443673 -0.11696123 -0.02356014 -0.18896015 -0.02230327 -0.27280042 -0.44661444 -0.6661434 0.58153564 -0.17288399 -0.20582122 -0.002213659 0.044717673 0.88065946 -0.0006620954 0.52430195 0.44770014
24 -0.54915136 -0.13483392 0.40818956 -0.5363184 -0.29301703 -0.6824436 0.121888 -0.05592763 -0.088411465 0.35804385 1.6764243e-05 -0.1347149 -0.14910896 0.012931498 -0.18670698 -0.6289675 0.20308958 0.18153727 0.48379922 0.070358366 -0.7112534 0.18019617 -0.2884415 0.29964656 -0.49704325 -0.35803825 0.30266735 -0.017426904 -0.0027219183 0.27888155 0.36712292 0.049285546 -0.015602025 -0.048414845 0.15123165 0.4237831 -0.13433625 0.053352013 0.8565196 -0.11774397 -0.58532006 0.58863944 0.7071402 0.36137107 -0.11439362 0.14419425 0.12412618 0.040541988 0.2378597 -0.17953241 0.55865926 0.17886533 0.17315602 0.09982225 0.31530905 -0.22945009 0.25301948 -0.007424342 0.32891756 0.06389579 0.43377867 -0.04127849 -0.37157416 0.26680124
88 0.08747081 -0.066470705 -0.9121493 0.45880637 0.038056187 -0.75104135 0.11138683 0.5580326 -0.53114104 -0.24144791 0.41080543 0.27473322 -0.1474492 -0.26734138 0.55466723 0.7599655 0.69645375 0.15809979 -0.02505581 0.061567895 0.642593 0.2124664 0.71490026 -0.9892797 -0.15851094 -0.15220729 0.68528426 -0.74331963 -0.2926547 -0.65706927 -0.3267782 -0.43505713 -0.50081635 0.017513271 -0.5298103 -0.188494 -0.75826275 -0.40708926 -0.16317064 -0.32591894 0.12383268 0.16797172 -0.4830378 0.4578527 0.19224504 -0.25468364 -0.20510189 -0.332965 -0.24153371 -0.43293434 -0.35311118 -0.43630832 -0.42488223 -0.25366446 -0.40033367 0.8146864 -0.2947746 0.543332 -0.25669822 0.23482145 -0.563825 0.05336284 0.23415457 -0.20034747
56 -0.66340137 -0.34032336 -0.37673578 -1.1824089 0.24255295 -0.45306876 0.13772972 0.14979602 -0.40207615 -0.24636474 0.0047382913 0.6312798 0.06434792 0.535938 0.09285554 0.42779824 0.8854889 -0.49272832 0.62402654 -0.67088634 -0.09159185 0.0586157 -0.112126544 0.06455735 -0.18526267 -0.7622869 -0.35516438 0.6768475 -0.021377388 0.21243246 0.5621236 -0.33824873 -0.3212985 -0.14716573 -0.2770675 -0.12002674 -0.16882181 0.2865515 0.5574414 0.32062665 -0.5414656 0.76499176 -0.32456338 0.58925354 0.30117416 0.1452472 0.1908678 1.0932351 0.43813086 -0.28004834 0.2599131 0.52153176 0.17795278 0.22836252 -0.68385303 0.53505886 -0.33880728 0.76482284 0.37990105 -0.22337736 -0.13748118 -0.30004936 0.3549131 -0.3238018
16 -0.9753609 0.61610657 0.3724968 0.25281128 0.11814791 0.04628694 -0.3081463 0.2761895 -0.29916587 0.2994243 -0.022494934 -0.4324093 -0.089145 0.26990008 -0.44291064 -0.08259807 0.26993525 -0.33391225 0.35549396 0.56116253 -0.006217821 -0.2552891 0.014860339 0.5394157 0.39570177 -0.12376476 0.2770988 0.34473762 0.17547381 0.55065155 0.39268994 0.10749366 0.012024525 0.01909003 0.54176986 -0.225854 0.035090875 0.3124125 0.2800125 0.48382926 0.4592402 0.9166068 -0.29582888 0.14892864 -0.1149918 -0.21929754 -0.2226668 -0.036253426 0.08359993 -0.32559213 0.009567702 0.5548577 0.3949196 0.0025202686 0.7561527 -0.15527569 0.00062513363 0.6561834 0.250073 -0.030151362 0.6395747 -0.048082583 -0.48206985 0.31960353
73 0.23354915 -0.7601349 -0.067877024 0.2210881 0.70171386 0.1050412 -0.07050159 0.6802082 -0.34282884 -0.34355238 -0.09076475 -0.98567474 0.36314937 -0.058980294 0.123350054 0.13059528 0.2531195 0.32221177 -0.03174263 -0.43044952 0.51647514 -0.65328693 -0.37304133 -0.8269639 0.5142927 0.14305072 0.18094595 -0.14108226 -0.25814998 -0.011844023 -0.06434551 -0.043251444 0.3601679 0.3146515 -0.20857611 0.16949922 -0.71042335 0.0002544936 0.53215504 -0.7422526 -0.28288943 0.23255976 -0.097986646 -0.11155762 0.08860025 0.46817386 -0.28442362 0.14305003 -0.22280967 -0.43811947 0.15064612 -0.40008196 -0.38432902 -0.55797046 0.06302294 0.18806542 0.5626628 -0.266304 0.37842277 0.14037679 0.12587997 0.07925208 0.24720691 -0.05757199
96 -0.30601832 -0.324271 0.3547308 -0.48141 -0.6675284 -0.3539158 -0.17776501 0.6306415 -0.9548046 -0.30423895 0.27379107 -0.7249219 -0.70281625 0.28356 -0.7514098 -0.5041948 0.024069965 0.44761488 -0.37597016 -0.37209862 -0.22270347 -0.33397347 -0.33046424 -0.68228126 0.7119179 -0.5808994 -0.10341041 -0.16031645 0.032334946 0.0419654 -0.20116836 0.5639953 0.56853336 -0.28859577 0.7665603 -0.070795715 0.5137772 0.1076119 0.24145548 0.18241544 0.5104506 0.02776285 0.6308382 -0.79300606 0.5092856 0.13292429 -0.13300508 0.39334786 0.26704484 -0.68987733 0.08426395 -0.39520416 0.3539769 0.34226474 -0.03532916 0.6785671 -0.1840514 0.10468567 -0.2961132 -0.30317104 -0.104271024 0.7495527 0.29597437 0.40364432
30 -0.3828175 -0.37144676 -0.07759258 0.70885324 0.042010922 -0.056708466 -0.35458082 0.6693923 0.10426705 0.24641526 -0.09763769 -0.0027148987 -0.16379452 -0.47547624 0.21097936 0.14769402 -0.053927366 0.13143666 -0.23109776 0.16569601 0.2550828 -0.08351424 0.0122979665 0.27423036 0.4316822 -0.25909173 0.5600938 -0.15840815 0.07086877 0.48243055 -0.15206154 0.5904313 0.7736992 0.14087059 -0.28794676 0.70485586 -0.39787698 -0.2096956 -0.05388296 0.23582585 0.7701576 -0.3394867 0.0011661197 -0.5167762 0.42074046 0.5473021 -0.41216618 0.010075252 0.007987586 -0.0825776 -0.6494185 0.11469442 0.38000387 -1.51508 0.22525021 -0.17540012 -0.5217438 0.014880266 -0.07775105 0.14861521 0.08472928 0.4646607 0.26031896 0.5668923
69 -0.006241386 -0.07309785 -0.10671901 0.34207237 -0.43348253 -0.22484426 -0.1710517 0.009322671 -0.5452343 -0.09475279 0.6677891 -0.5241231 0.38871354 -0.0026605476 -0.22297172 0.036496796 -0.14794981 1.0980068 -0.06959919 -0.27239513 0.43729508 0.3656449 0.03784521 -0.5158093 -0.432236 -0.49560526 0.81260294 0.13634388 -0.002628473 -0.12689804 -0.47723934 -0.42954132 0.5830688 -0.060050417 -0.04728906 0.36194012 0.22012904 -0.50225264 0.21567903 0.4815567 0.36875957 -0.40408435 0.5974407 0.8356244 0.6649996 -0.00866315 -0.080499746 0.19588329 -0.025171045 0.0051501365 -0.7733092 0.031771846 0.44986236 -0.43164176 -0.09972901 0.75834477 0.21792951 0.3199592 -0.4586725 -0.6904535 0.24851531 0.6936048 0.6130167 0.49460325
82 -0.25641975 -0.5439681 0.22980563 -0.33745784 0.028166266 -0.108621925 -0.07868308 0.39628732 -0.19024664 0.42530856 -0.14225878 0.2626274 0.04119995 -0.021403443 -0.116988614 0.7207802 0.1432551 -0.58473 -0.41581982 0.0042164093 -0.8038171 0.21444532 -0.2774039 0.32371032 0.5091933 -0.012911298 -0.22691722 -0.38405612 0.076315045 -0.5036499 -0.056455433 -0.3121439 -0.46521345 -0.11130798 0.5059949 -0.7273248 -0.032661036 0.3065501 -0.07668166 -0.14029655 0.10448918 -0.35189557 -0.51511997 -0.054168373 0.115421556 0.41545948 0.47150975 0.6861443 0.2670801 -0.68653095 0.767179 -0.20712014 -0.72193646 0.17610957 0.033859573 0.66517365 0.19217007 0.06320993 -0.03349624 0.20093817 0.07397382 0.41879147 0.12751539 0.28174782
67 0.08106084 -0.02980434 0.6874757 0.49849868 -0.47878572 0.7018267 -0.026715212 -0.2340841 0.2539219 -0.15238199 0.71275693 0.05918115 -0.22054362 0.2754351 0.04247857 1.2545859 -0.063610256 0.19902276 -0.1986997 0.16363299 0.5730811 0.5783968 -0.40970424 -0.30095696 0.33102867 0.71722984 -0.19908454 -0.4205709 -0.105816245 -0.2670461 -0.2992743 0.20275694 0.16791572 -0.21014504 0.518064 0.20359553 -0.49090183 -0.4549231 0.15279599 -0.3923564 0.30077162 -0.680694 -0.2367843 0.2976611 -0.7716459 -0.3780491 -0.4087413 0.43899614 -0.22836721 -0.5217704 0.60352695 0.069005884 -0.5128619 -0.28924206 0.06278926 -0.033290967 -0.29711756 -0.25909975 0.066110946 0.22255677 0.31154323 -0.3442366 0.79465395 0.11456479
23 0.20679125 0.14810124 0.7436229 0.026864935 0.25565204 -0.8124028 0.53266484 -0.06582961 -0.1657443 0.120821334 0.4855913 -0.44886363 -0.03940688 0.60642 0.43354228 0.66983575 -0.08027207 -0.16990894 -0.1816825 -0.58668625 -0.30324256 -0.18701091 0.24989247 -0.0741718 -0.26480892 0.24441975 0.19576389 0.016982147 0.10404633 -0.06017792 -0.18384098 0.62161165 -0.22941044 -0.11554682 -0.0058281086 0.48953784 -0.6151455 -0.1931635 -0.40932658 0.6180683 -0.6972267 0.74382144 -0.41827726 0.31280395 0.2692776 -0.04732352 0.8145437 -0.27777144 0.5045866 -0.19077347 0.030096369 0.4804392 0.3420974 0.5089657 -0.6456254 0.63748974 -0.012008745 -0.00715294 0.6307251 0.77902514 -0.32874826 -0.5810804 -0.4133417 0.5678727
66 -0.2952424 -0.2051136 -0.17850047 -0.14741454 -0.13909772 -0.24785382 -0.4448968 0.45624658 0.54102445 0.40653482 0.7799609 0.78898627 -0.5341335 0.3417395 -0.02553902 0.72893095 -0.20049344 -0.002158201 0.50873965 0.53886247 -0.3876909 0.9060329 0.32299766 0.02791865 -0.52601683 -0.26949912 0.09645399 0.5955146 -0.10876205 0.6909297 -0.33567876 0.3082184 -0.33186504 0.13162547 0.2527076 0.21130027 -0.20389295 0.18551813 -0.20984776 0.3247618 0.019630026 -0.12397278 -0.025431808 0.5778896 -0.46981367 -0.63653743 0.20333394 0.67632765 0.24867836 -0.50467265 -0.39682654 -0.25661764 -0.536559 -0.47491178 0.3457277 0.9217288 0.0942678 -0.26122084 -0.22312583 -0.39523366 0.7613073 -0.6937936 0.21419209 0.07446495
72 -0.3387016 0.08390206 0.79445875 0.9176056 -0.4056645 -0.65360063 -0.3622157 0.06159423 -0.72808796 0.279039 -0.23932783 0.4078947 0.844205 -0.03450545 0.4953963 -0.18595925 0.45401844 -0.2588906 0.63637936 0.45355627 0.60390174 0.82621807 0.6766031 0.36250606 -0.074484415 -0.002197122 0.43149313 0.22201991 0.2049123 -0.06053855 0.42867982 -0.06009857 0.26048037 -0.5576409 0.25746804 0.24204023 -0.38663894 0.029235158 0.25034738 -0.038047116 0.7839367 0.9118939 0.14334512 0.9443183 -0.19307455 0.22516018 -0.05961888 -0.23171644 -0.26158902 -0.089614384 -0.63566387 0.8080971 0.05971809 -0.44269451 0.28081205 0.009687477 -0.5670787 0.4523889 0.47183543 -0.15929636 0.5152214 -0.70208 -0.2485392 -0.051080864
55 -0.56816137 0.5972536 0.15423365 -0.71605736 0.23800069 0.4131801 -0.36968908 0.041654427 -0.22133185 0.45325157 0.25388178 -0.15316959 -0.12324593 0.31996477 -0.30544177 0.5398658 0.545625 0.3983162 0.5191493 0.1578749 0.5864881 0.20121402 0.0012425059 0.11866443 -0.26601106 -0.06922047 0.20651424 0.25023147 0.32444713 0.36015663 -0.34662986 -0.5073144 0.28588197 -0.41158146 0.119507395 0.13388088 0.36781427 -0.20441283 0.5226179 0.33160144 -0.008339518 0.14054528 -0.057806928 0.93320864 0.68948555 -0.8237769 -0.25386497 0.65960765 -0.46086216 0.17225513 -0.10394381 0.18926407 -0.3242057 0.15309884 -0.29947972 -0.15545784 -0.5584673 0.34991252 -0.069651365 -0.6102865 0.18592128 0.5537282 0.048148565 0.076372884
28 -0.31216893 0.6003075 0.04921781 0.39097798 0.5852943 -0.087468505 0.12292792 0.42839277 -0.3371555 0.2914146 -0.15996553 -0.9306903 0.012154996 0.28882542 0.2775231 -0.80117667 -0.22056463 0.25496364 0.115039624 0.9266883 -0.49241507 0.04557135 0.08425507 -0.031670723 0.16329068 -0.038252268 0.37874815 -0.5973538 0.20306012 0.8216909 -0.26278344 0.7118206 -0.057040922 -0.22594842 0.49030018 -0.30771884 -0.17855367 0.4566905 0.27358246 1.4877099 0.7305981 0.50890076 0.005766126 0.3824679 -0.6432274 0.021935092 -0.4752041 -0.039534763 -0.3831321 -0.81035054 -0.2423432 0.6053121 -0.01920704 -0.398296 0.048250806 -0.2742432 -0.06284515 -0.13038997 0.09396053 0.290842 0.2898049 0.22736412 -0.32806984 -0.32766044
53 -0.059505723 0.35197544 1.1527497 0.83989483 -0.29907253 0.31028777 -0.4781049 0.223423 0.00971843 -0.0750335 0.09997118 -0.42322975 -0.53773475 -0.5494831 0.13948601 0.45177943 0.29186293 -0.15172651 0.6613391 0.52834344 0.47075114 -0.53925335 -0.09908826 0.31256872 0.8882292 0.7438001 0.5350464 -0.023606282 0.30711406 -0.70016766 -0.32197446 -0.28406867 0.452337 0.045738548 0.39178514 0.2927258 0.13753583 -0.19004847 -0.5636026 0.4178945 0.80112946 -0.020602044 -0.008451734 -0.5172797 0.16367193 -0.11198677 0.16183262 -0.45520937 0.6774635 0.19139427 0.3885549 -0.25372013 0.33146968 -0.2799471 0.30438933 -0.3998807 0.3076898 0.023340879 0.3054817 0.43843743 -0.05888244 -0.41446128 0.31630996 0.62917113
89 -0.31891197 -0.77281654 0.6004846 -0.38782054 -0.14799978 -0.08296771 -0.59678215 0.82264435 -0.3840307 -0.5235688 -0.2944841 0.087004654 -0.5440083 0.11910084 -0.2763575 0.751869 0.6069484 -0.24533771 0.30969474 -0.12472467 0.5130183 0.18464454 0.03459328 0.45580545 -0.15164468 -0.5845501 0.028600251 0.30773914 0.16297603 0.34264144 -0.24490954 -0.06586625 0.39231607 -0.8555433 0.33371326 -0.29526982 -0.18957509 0.291772 -0.7931428 -0.063499354 0.21821724 -0.18406983 0.20123582 -0.45607457 -0.041278746 0.04331186 -0.20118164 -0.16543958 -0.121562764 -0.30577156 -0.26314694 -0.6095453 -0.5413374 0.22379982 0.26998335 0.3332544 -0.7840566 -0.53870577 0.33873737 -0.31242615 -0.032132234 -0.6115281 0.63336825 -0.34177375
68 -0.24814984 0.30129611 0.47382206 0.35861543 -0.48468906 -0.105901316 -0.7652698 -0.22034195 -0.057060525 0.34335846 0.68755233 -0.07774923 -0.42160153 -0.11638853 0.42244887 0.5969486 0.2399858 -0.23428695 -0.055444997 0.65369743 -0.064904645 -0.54873574 0.2489301 -0.7079182 -0.16844049 -0.13661517 0.21956943 -0.28359878 -0.22944868 -0.7098402 0.71436864 -0.2770163 -0.026688304 -0.0006742197 0.11565723 -0.25398478 -0.48260745 -0.17130528 0.19172072 -0.52567947 0.3850236 0.28156772 -0.03219333 0.7158734 -0.6276085 -0.14053908 0.26411292 -0.4486743 -0.15331854 -0.40531063 -0.7373865 0.3632071 -0.9035125 0.64344364 0.405276 -0.20373131 0.17677338 0.097835965 0.46782723 0.051937558 0.044695143 -0.15194239 0.12783897 0.11305406
31 0.44072855 -0.21925202 0.67222774 -0.70572716 0.05489544 0.036392268 0.060152724 -0.012923842 0.8860639 0.4813758 0.21736358 -0.712219 -0.39956912 0.22158405 0.47799715 -0.16732544 0.46433547 -0.2518499 -0.12626627 -0.3387966 -0.043602396 0.62517524 0.18726587 -0.29493997 0.28973138 -0.22534093 -0.254551 0.1423901 0.6634002 0.5742987 0.3018798 0.2875882 0.21830432 -0.385408 0.27628687 0.7482926 -0.29349682 -0.03295485 -0.35158995 1.0670798 0.23601149 -0.9659288 -0.05247475 0.099665806 -1.2011998 -0.34490272 0.32800683 0.48603573 0.051032294 -0.28331178 -0.0792135 -0.35931647 -0.24693315 0.16733198 -0.3453398 -0.41501948 -0.19666462 -0.31386957 0.5050368 0.10401799 0.30649456 0.17120743 -0.13095939 0.6009753
14 -0.05374545 -0.2184864 -0.4938434 -0.28912637 0.07554741 -0.06982786 -0.69201815 0.68036085 -0.069354005 -0.36472192 0.100696035 -0.24192442 -0.95806736 0.35363594 -0.6496729 0.18798499 0.5610778 -0.432845 0.20271632 -0.7375136 0.5754682 -0.5275289 0.28782335 -0.58161783 -0.050353892 -0.5726133 -0.15414801 0.34880057 0.032109514 0.13316174 -0.099232584 0.18102165 -0.0005169549 -0.1120974 0.18535565 0.042476572 0.06141346 0.7223412 -0.08280358 -0.7842002 -0.91215235 0.73625803 0.90511924 -0.7201583 -0.007958693 -0.2527584 0.07186818 -0.21074042 0.2783269 -0.08178024 0.10549653 0.0073744464 0.08440634 0.13163969 0.33953792 0.64791876 -0.4122232 0.17783628 0.17690608 0.87276715 -0.22997549 -1.0945166 -0.07609897 -0.14418246
79 -0.3437249 -0.01863484 0.09883835 0.47595403 -0.12627696 0.13575499 -0.35765386 0.74787325 0.36023384 0.5775741 -0.06470116 -0.7201224 -0.93446195 -0.25799972 0.59177727 0.2312732 0.749367 0.06857482 -0.54991794 0.21536054 -0.4826913 -0.9637908 0.47715175 -0.039464884 0.25490057 -0.5801647 -0.5465936 -0.5689929 -0.27808857 -0.4055519 -0.29751527 -0.43367097 -0.20807607 0.101921946 0.2850442 -0.7130318 -0.25650668 0.5730943 0.9785214 -0.5053385 0.0050023217 0.3090843 0.059450906 -1.2954867 -0.35630634 0.3385563 0.57762235 -0.35368073 0.53643405 -0.05040004 0.5600906 -0.46846935 -0.3432244 -0.19982661 0.74361956 -0.18207896 0.48829406 0.49788627 -0.25668266 0.22571285 -0.14704992 0.695456 -0.051560003 -0.047442596
